<?xml version="1.0"?>
<opencv_storage>
<stage11>
  <maxWeakCount>18</maxWeakCount>
  <stageThreshold>-7.0849466323852539e-01</stageThreshold>
  <weakClassifiers>
    <_>
      <internalNodes>
        0 -1 161608 -9.9677676334977150e-03</internalNodes>
      <leafValues>
        4.8888888955116272e-01 -3.5121950507164001e-01</leafValues></_>
    <_>
      <internalNodes>
        0 -1 160936 -9.4788393471390009e-04</internalNodes>
      <leafValues>
        4.5620277523994446e-01 -2.7308645844459534e-01</leafValues></_>
    <_>
      <internalNodes>
        0 -1 155216 -9.5464009791612625e-04</internalNodes>
      <leafValues>
        -6.2054550647735596e-01 1.4417628943920135e-01</leafValues></_>
    <_>
      <internalNodes>
        0 -1 159712 -1.0891114652622491e-04</internalNodes>
      <leafValues>
        -5.2448558807373047e-01 2.3134815692901611e-01</leafValues></_>
    <_>
      <internalNodes>
        0 -1 10017 -2.3416941985487938e-03</internalNodes>
      <leafValues>
        4.7199001908302307e-01 -2.7130258083343506e-01</leafValues></_>
    <_>
      <internalNodes>
        0 -1 134649 5.7627251371741295e-03</internalNodes>
      <leafValues>
        1.6552601754665375e-01 -8.6900705099105835e-01</leafValues></_>
    <_>
      <internalNodes>
        0 -1 148150 -9.4013253692537546e-04</internalNodes>
      <leafValues>
        3.2624152302742004e-01 -3.4935852885246277e-01</leafValues></_>
    <_>
      <internalNodes>
        0 -1 133639 -1.9347658380866051e-03</internalNodes>
      <leafValues>
        5.3752702474594116e-01 -1.6907308995723724e-01</leafValues></_>
    <_>
      <internalNodes>
        0 -1 162330 -3.1167297856882215e-04</internalNodes>
      <leafValues>
        -6.5028256177902222e-01 1.9056817889213562e-01</leafValues></_>
    <_>
      <internalNodes>
        0 -1 159625 -9.9228986073285341e-04</internalNodes>
      <leafValues>
        2.8366810083389282e-01 -3.5489124059677124e-01</leafValues></_>
    <_>
      <internalNodes>
        0 -1 162309 3.0637611635029316e-03</internalNodes>
      <leafValues>
        1.3204465806484222e-01 -7.5224339962005615e-01</leafValues></_>
    <_>
      <internalNodes>
        0 -1 13179 1.0011070407927036e-03</internalNodes>
      <leafValues>
        1.4899882674217224e-01 -6.5126794576644897e-01</leafValues></_>
    <_>
      <internalNodes>
        0 -1 22154 -3.8766548968851566e-03</internalNodes>
      <leafValues>
        5.2982223033905029e-01 -2.0065894722938538e-01</leafValues></_>
    <_>
      <internalNodes>
        0 -1 11484 -1.3090211432427168e-03</internalNodes>
      <leafValues>
        6.5182805061340332e-01 -1.3642299175262451e-01</leafValues></_>
    <_>
      <internalNodes>
        0 -1 162101 5.1359122153371572e-04</internalNodes>
      <leafValues>
        1.9030518829822540e-01 -6.2025362253189087e-01</leafValues></_>
    <_>
      <internalNodes>
        0 -1 127902 -4.5852633193135262e-03</internalNodes>
      <leafValues>
        4.2485821247100830e-01 -2.6301884651184082e-01</leafValues></_>
    <_>
      <internalNodes>
        0 -1 162100 -2.2317937691695988e-04</internalNodes>
      <leafValues>
        -5.6720167398452759e-01 2.2720146179199219e-01</leafValues></_>
    <_>
      <internalNodes>
        0 -1 37211 -2.7158092707395554e-03</internalNodes>
      <leafValues>
        5.2434432506561279e-01 -2.2158685326576233e-01</leafValues></_></weakClassifiers></stage11>
</opencv_storage>
