<?xml version="1.0"?>
<opencv_storage>
<stage7>
  <maxWeakCount>12</maxWeakCount>
  <stageThreshold>-7.5416433811187744e-01</stageThreshold>
  <weakClassifiers>
    <_>
      <internalNodes>
        0 -1 18763 3.3450049161911011e-01</internalNodes>
      <leafValues>
        -3.8765433430671692e-01 6.0000002384185791e-01</leafValues></_>
    <_>
      <internalNodes>
        0 -1 161552 6.5631899051368237e-03</internalNodes>
      <leafValues>
        -3.0110669136047363e-01 5.6956177949905396e-01</leafValues></_>
    <_>
      <internalNodes>
        0 -1 80705 1.8457435071468353e-03</internalNodes>
      <leafValues>
        2.1198958158493042e-01 -7.1416753530502319e-01</leafValues></_>
    <_>
      <internalNodes>
        0 -1 159691 6.2876893207430840e-04</internalNodes>
      <leafValues>
        -4.9259209632873535e-01 3.0435609817504883e-01</leafValues></_>
    <_>
      <internalNodes>
        0 -1 98591 -4.6007582568563521e-04</internalNodes>
      <leafValues>
        -7.9807192087173462e-01 2.0539948344230652e-01</leafValues></_>
    <_>
      <internalNodes>
        0 -1 80691 2.3201853036880493e-04</internalNodes>
      <leafValues>
        1.9414557516574860e-01 -6.9526654481887817e-01</leafValues></_>
    <_>
      <internalNodes>
        0 -1 1107 -1.0049839038401842e-03</internalNodes>
      <leafValues>
        -6.8464016914367676e-01 1.9060765206813812e-01</leafValues></_>
    <_>
      <internalNodes>
        0 -1 22872 -8.5525549948215485e-03</internalNodes>
      <leafValues>
        5.2692633867263794e-01 -2.9874917864799500e-01</leafValues></_>
    <_>
      <internalNodes>
        0 -1 13299 -2.8925633523613214e-04</internalNodes>
      <leafValues>
        -6.0296845436096191e-01 2.2041969001293182e-01</leafValues></_>
    <_>
      <internalNodes>
        0 -1 160977 3.3212974667549133e-02</internalNodes>
      <leafValues>
        1.3566814363002777e-01 -9.2593652009963989e-01</leafValues></_>
    <_>
      <internalNodes>
        0 -1 12804 -5.0309661310166121e-04</internalNodes>
      <leafValues>
        4.1105139255523682e-01 -3.6130777001380920e-01</leafValues></_>
    <_>
      <internalNodes>
        0 -1 8617 -7.8505817800760269e-03</internalNodes>
      <leafValues>
        1.5199504792690277e-01 -8.8200551271438599e-01</leafValues></_></weakClassifiers></stage7>
</opencv_storage>
